3 100
sentence -0.002523 0.002456 -0.004063 0.001291 -0.000916 -0.004514 0.001576 -0.004544 0.004395 -0.000302 0.001045 0.000002 -0.001724 -0.004066 -0.001874 -0.004293 0.000060 -0.002706 -0.004666 -0.003325 0.002151 0.004063 -0.001479 0.001968 -0.003094 -0.001030 0.004224 0.001361 -0.001180 0.002836 0.004822 0.001814 -0.002676 -0.002352 0.002553 -0.001993 0.000528 0.004969 -0.004934 0.001812 0.001813 -0.003685 0.001121 -0.004405 0.002402 0.003231 -0.002252 -0.000821 -0.003945 -0.001177 -0.000473 0.002573 0.004508 0.003451 0.002229 -0.001208 0.003516 0.001888 -0.004420 -0.004688 -0.002147 0.000923 0.004782 -0.002742 0.000376 0.001501 0.002899 0.002994 -0.002548 -0.003623 -0.003210 -0.002188 -0.001798 -0.003572 0.000309 -0.001058 0.002775 -0.004422 0.000204 0.002785 0.003104 0.000915 0.003126 -0.003212 -0.000404 0.000621 -0.004357 -0.000656 -0.000820 -0.004857 0.004243 -0.000066 -0.001695 0.004191 -0.003468 -0.004064 -0.004465 -0.004899 0.002799 0.004158
first -0.004837 -0.003157 0.001265 -0.001016 0.000438 -0.000081 0.001465 0.004189 -0.002494 -0.004132 -0.002647 -0.000852 -0.002108 -0.000393 -0.001562 0.000041 0.003415 0.003865 0.002886 -0.000879 -0.000893 0.004650 -0.001582 0.004576 -0.000096 -0.001236 0.004501 -0.004308 -0.001584 0.000145 -0.002645 0.001702 0.004809 -0.002501 -0.002812 -0.000622 -0.000447 -0.000051 -0.000333 -0.002487 -0.000246 0.000590 0.004603 -0.002760 -0.001440 -0.000628 0.004052 -0.000020 -0.003109 -0.002512 0.000661 0.003743 -0.002402 -0.004652 -0.000603 0.000056 0.000315 -0.003303 0.004042 0.003064 0.001081 -0.000119 -0.003184 0.001459 -0.002092 0.001988 -0.004662 0.002069 0.002215 -0.000385 0.000878 -0.003657 -0.003742 -0.004137 0.001903 -0.002373 0.001009 -0.001398 0.002615 -0.001876 -0.001445 0.000537 0.003188 -0.000905 -0.004655 -0.002787 -0.000020 -0.004544 0.000221 -0.003395 -0.004674 0.003872 0.002281 0.003050 -0.000755 -0.000967 -0.000297 0.004995 0.000267 0.001042
second -0.001021 0.004090 -0.002548 0.001352 -0.000891 -0.000088 0.000289 -0.002071 0.002651 -0.003153 -0.000262 0.003177 0.004325 -0.000277 -0.002945 -0.000540 0.002608 0.001742 -0.003542 0.002674 -0.002362 -0.000868 -0.002916 -0.004932 0.000681 -0.004005 0.003278 0.000447 0.004129 0.001579 0.003385 0.004873 0.000083 0.002154 0.000178 0.001428 -0.002673 -0.004214 -0.002037 -0.002838 -0.001454 0.000745 0.000354 0.002372 0.004599 -0.004878 -0.004305 0.004143 -0.000047 0.000734 0.002249 0.001553 -0.003242 -0.004267 0.003202 -0.001823 -0.001078 -0.003831 0.004539 0.004374 0.002174 0.004903 -0.001620 0.002665 0.002437 -0.004374 -0.004911 -0.000320 -0.003034 0.004176 -0.002648 0.004712 0.001325 -0.002465 -0.001305 -0.002301 0.004255 0.001082 -0.004572 -0.001838 0.001527 0.004702 -0.000838 0.002828 -0.002151 0.000801 -0.002488 0.004023 -0.002640 -0.004803 0.000910 0.001365 0.000736 0.003705 0.001648 -0.001278 -0.002537 -0.004705 -0.001134 -0.004704
